/* Auto generated by export_rx2_model_data.py */

#include "rx2_model_data.h"

const float rx2_model_w[RX2_MODEL_NC] = {
    8.344855905e-01f, 8.835729361e-01f, 9.326603413e-01f, 9.817477465e-01f, 1.030835152e+00f, 1.079922557e+00f, 1.129009843e+00f,
    1.178097248e+00f, 1.227184653e+00f, 1.276272058e+00f, 1.325359464e+00f, 1.374446869e+00f, 1.423534155e+00f, 1.472621560e+00f,
};

const COMP rx2_model_pend[RX2_MODEL_M] = {
    {4.419417307e-02f, 0.000000000e+00f},
    {1.509798598e-02f, 4.082163051e-02f},
    {-3.184666485e-02f, 2.673715912e-02f},
    {-3.289430961e-02f, -2.016525157e-02f},
    {9.099691175e-03f, -3.371531889e-02f},
    {3.120575659e-02f, 9.431309300e-04f},
    {3.907317761e-03f, 2.806994319e-02f},
    {-2.631405927e-02f, 6.830648985e-03f},
    {-9.993928485e-03f, -2.632519230e-02f},
    {2.686199918e-02f, -1.505383383e-02f},
    {2.223922685e-02f, 2.589885890e-02f},
    {-2.181973867e-02f, 3.026886471e-02f},
    {-3.708801046e-02f, -1.429900341e-02f},
    {4.411888309e-03f, -4.096369445e-02f},
    {4.130214825e-02f, -6.031239405e-03f},
    {1.549290027e-02f, 3.873853758e-02f},
    {-3.448604792e-02f, 2.343748510e-02f},
    {-3.033698723e-02f, -2.937653847e-02f},
    {2.321779542e-02f, -3.694698960e-02f},
    {4.330320284e-02f, 1.491963491e-02f},
    {-3.390202764e-03f, 4.809475690e-02f},
    {-4.890312254e-02f, 1.127892639e-02f},
    {-2.705582045e-02f, -4.331929609e-02f},
    {3.043154441e-02f, -4.019724205e-02f},
    {4.652657360e-02f, 1.188965142e-02f},
    {8.114425465e-03f, 4.324819893e-02f},
    {-3.043726273e-02f, 2.410472184e-02f},
    {-3.134752437e-02f, -1.142532472e-02f},
    {-8.202862926e-03f, -2.774706110e-02f},
    {1.472598407e-02f, -2.261855081e-02f},
    {2.788129821e-02f, -3.337549046e-03f},
    {2.085645683e-02f, 2.323935926e-02f},
    {-1.104854699e-02f, 3.314559907e-02f},
    {-3.792507201e-02f, 4.562264308e-03f},
    {-1.954909600e-02f, -3.558757901e-02f},
    {2.825477719e-02f, -3.139137849e-02f},
    {3.945300728e-02f, 1.826779172e-02f},
    {-7.012267131e-03f, 4.423762113e-02f},
    {-4.613905400e-02f, 5.271008704e-03f},
    {-1.865795068e-02f, -4.456357658e-02f},
    {3.807047755e-02f, -3.230461106e-02f},
    {4.371473193e-02f, 2.554164827e-02f},
    {-7.709054276e-03f, 4.918816313e-02f},
    {-4.545474797e-02f, 1.196835469e-02f},
    {-2.785975486e-02f, -3.174481541e-02f},
    {1.113031153e-02f, -3.420340270e-02f},
    {2.782417461e-02f, -9.822747670e-03f},
    {2.327926271e-02f, 1.019238587e-02f},
    {1.238891575e-02f, 2.343751863e-02f},
    {-9.416419081e-03f, 3.087837063e-02f},
    {-3.717636317e-02f, 1.376066823e-02f},
    {-3.680722043e-02f, -2.780637518e-02f},
    {5.838060752e-03f, -4.994443804e-02f},
    {4.722328484e-02f, -2.002732083e-02f},
    {3.901822492e-02f, 2.941375598e-02f},
    {-4.004772287e-03f, 4.302978888e-02f},
    {-3.040913120e-02f, 1.786904968e-02f},
    {-2.632120438e-02f, -6.976294797e-03f},
    {-1.632345468e-02f, -1.725634933e-02f},
    {-5.551762413e-03f, -2.820436843e-02f},
    {2.215030231e-02f, -3.189458326e-02f},
    {4.953567311e-02f, -4.823830968e-04f},
    {3.084668517e-02f, 4.965486005e-02f},
    {-3.087307699e-02f, 5.637563765e-02f},
    {-6.629125774e-02f, -3.960428430e-08f},
    {-3.087303415e-02f, -5.637571961e-02f},
    {3.084677085e-02f, -4.965491220e-02f},
    {4.953581467e-02f, 4.824912467e-04f},
    {2.215029299e-02f, 3.189479187e-02f},
    {-5.551929586e-03f, 2.820445970e-02f},
    {-1.632365026e-02f, 1.725624315e-02f},
    {-2.632117271e-02f, 6.976072211e-03f},
    {-3.040894866e-02f, -1.786914840e-02f},
    {-4.004644696e-03f, -4.302957654e-02f},
    {3.901820630e-02f, -2.941359766e-02f},
    {4.722321406e-02f, 2.002730966e-02f},
    {5.838013720e-03f, 4.994432628e-02f},
    {-3.680741414e-02f, 2.780627459e-02f},
    {-3.717648983e-02f, -1.376074553e-02f},
    {-9.416270070e-03f, -3.087848611e-02f},
    {1.238909177e-02f, -2.343759686e-02f},
    {2.327922173e-02f, -1.019235607e-02f},
    {2.782414667e-02f, 9.822869673e-03f},
    {1.113016345e-02f, 3.420342132e-02f},
    {-2.785978094e-02f, 3.174456954e-02f},
    {-4.545462504e-02f, -1.196849253e-02f},
    {-7.708980702e-03f, -4.918799549e-02f},
    {4.371461645e-02f, -2.554144524e-02f},
    {3.807028383e-02f, 3.230470046e-02f},
    {-1.865800843e-02f, 4.456328228e-02f},
    {-4.613892734e-02f, -5.271131173e-03f},
    {-7.012154441e-03f, -4.423756525e-02f},
    {3.945299238e-02f, -1.826753467e-02f},
    {2.825449407e-02f, 3.139137849e-02f},
    {-1.954917610e-02f, 3.558772802e-02f},
    {-3.792507574e-02f, -4.562328104e-03f},
    {-1.104864012e-02f, -3.314571455e-02f},
    {2.085666358e-02f, -2.323961444e-02f},
    {2.788140625e-02f, 3.337687580e-03f},
    {1.472586300e-02f, 2.261878364e-02f},
    {-8.203190751e-03f, 2.774734050e-02f},
    {-3.134794161e-02f, 1.142507885e-02f},
    {-3.043709882e-02f, -2.410490811e-02f},
    {8.114790544e-03f, -4.324835539e-02f},
    {4.652681947e-02f, -1.188919786e-02f},
    {3.043130226e-02f, 4.019765928e-02f},
    {-2.705621161e-02f, 4.331942648e-02f},
    {-4.890317842e-02f, -1.127915084e-02f},
    {-3.389970865e-03f, -4.809484631e-02f},
    {4.330341518e-02f, -1.491954923e-02f},
    {2.321775630e-02f, 3.694721311e-02f},
    {-3.033713624e-02f, 2.937652543e-02f},
    {-3.448585048e-02f, -2.343763784e-02f},
    {1.549309865e-02f, -3.873851895e-02f},
    {4.130223766e-02f, 6.031393539e-03f},
    {4.411775153e-03f, 4.096347094e-02f},
    {-3.708810359e-02f, 1.429875661e-02f},
    {-2.181951702e-02f, -3.026884608e-02f},
    {2.223909833e-02f, -2.589883283e-02f},
    {2.686194703e-02f, 1.505378541e-02f},
    {-9.994030930e-03f, 2.632496133e-02f},
    {-2.631383017e-02f, -6.831016392e-03f},
    {3.907484934e-03f, -2.806976624e-02f},
    {3.120557405e-02f, -9.429027559e-04f},
    {9.099205956e-03f, 3.371529281e-02f},
    {-3.289457038e-02f, 2.016464248e-02f},
    {-3.184646368e-02f, -2.673725598e-02f},
    {1.509832498e-02f, -4.082147777e-02f},
};
